{
    "W1": [
        [
            -4.315529848528232e-09,
            1.9515286525201032,
            -0.35689908196629544,
            1.5530009415153645,
            -1.5831443407020378
        ]
    ],
    "b1": [
        -0.6880109593275947,
        -0.48674803548240925,
        1.3649528874371009,
        -0.4404107443958568,
        1.011570950535814
    ],
    "W2": [
        [
            -0.05269768324166149,
            0.04760892685957675,
            0.0049444893281203805
        ],
        [
            -1.6864016544944265,
            -0.0034051038472065727,
            -1.6714908801639887
        ],
        [
            0.5225280117289144,
            6.890595761793809e-33,
            0.9680456464810882
        ],
        [
            -1.3350952477313753,
            3.957044801199544e-14,
            -1.6440061967441695
        ],
        [
            0.7101277370666123,
            -2.620410077307003e-10,
            1.4092421209425066
        ]
    ],
    "b2": [
        1.20900744245166,
        -0.5201802681467196,
        0.8320355584562079
    ],
    "W3": [
        [
            1.2153659664996088
        ],
        [
            -0.1788602037384698
        ],
        [
            1.330048967573779
        ]
    ],
    "b3": [
        -1.3742095353812713
    ],
    "normalizacion_min": [
        978.88
    ],
    "normalizacion_max": [
        1029.21
    ],
    "precision": 0.9
}